{"Train epoch_loss": 0.23982330171391367, "Test epoch_loss": 0.1819918878128131, "Train accuracy": 0.9428889155387878, "Test accuracy": 0.8610666394233704, "_timestamp": 1678198255.7302265, "_runtime": 379.5356435775757, "_step": 19, "parameters/graph_3conv1.weight": {"_type": "histogram", "values": [2.0, 2.0, 0.0, 3.0, 8.0, 4.0, 10.0, 9.0, 5.0, 3.0, 6.0, 7.0, 9.0, 7.0, 9.0, 10.0, 9.0, 4.0, 2.0, 8.0, 10.0, 8.0, 10.0, 6.0, 12.0, 9.0, 5.0, 3.0, 7.0, 8.0, 4.0, 9.0, 5.0, 8.0, 12.0, 11.0, 6.0, 12.0, 12.0, 9.0, 8.0, 7.0, 12.0, 14.0, 10.0, 7.0, 9.0, 9.0, 7.0, 13.0, 8.0, 8.0, 4.0, 8.0, 5.0, 2.0, 4.0, 4.0, 2.0, 3.0, 4.0, 0.0, 0.0, 1.0], "bins": [-0.21659839153289795, -0.2104533612728119, -0.20430833101272583, -0.19816328585147858, -0.19201825559139252, -0.18587322533130646, -0.1797281801700592, -0.17358314990997314, -0.16743811964988708, -0.16129308938980103, -0.15514805912971497, -0.1490030139684677, -0.14285798370838165, -0.1367129534482956, -0.13056790828704834, -0.12442287802696228, -0.11827784776687622, -0.11213281750679016, -0.1059877797961235, -0.09984274208545685, -0.09369771182537079, -0.08755268156528473, -0.08140764385461807, -0.07526260614395142, -0.06911757588386536, -0.0629725456237793, -0.05682750791311264, -0.05068247392773628, -0.044537439942359924, -0.038392405956983566, -0.03224737197160721, -0.02610233798623085, -0.019957318902015686, -0.013812284916639328, -0.00766725093126297, -0.001522216945886612, 0.004622817039489746, 0.010767851024866104, 0.016912885010242462, 0.02305791899561882, 0.029202952980995178, 0.035347986966371536, 0.041493020951747894, 0.04763805493712425, 0.05378308892250061, 0.05992812290787697, 0.06607315689325333, 0.07221819460391998, 0.07836322486400604, 0.0845082551240921, 0.09065329283475876, 0.09679833054542542, 0.10294336080551147, 0.10908839106559753, 0.11523342877626419, 0.12137846648693085, 0.1275234967470169, 0.13366852700710297, 0.13981357216835022, 0.14595860242843628, 0.15210363268852234, 0.1582486629486084, 0.16439369320869446, 0.1705387383699417, 0.17668376863002777]}, "parameters/graph_3conv1.bias": {"_type": "histogram", "values": [1.0, 0.0, 1.0, 1.0, 0.0, 0.0, 0.0, 1.0, 0.0, 0.0, 0.0, 0.0, 1.0, 0.0, 0.0, 1.0, 0.0, 0.0, 1.0, 1.0, 0.0, 0.0, 1.0, 0.0, 0.0, 0.0, 0.0, 1.0, 0.0, 0.0, 0.0, 0.0, 0.0, 0.0, 3.0, 0.0, 0.0, 1.0, 0.0, 0.0, 0.0, 0.0, 0.0, 0.0, 0.0, 0.0, 0.0, 0.0, 0.0, 0.0, 0.0, 0.0, 0.0, 0.0, 0.0, 0.0, 0.0, 1.0, 0.0, 0.0, 0.0, 0.0, 0.0, 1.0], "bins": [-0.19866833090782166, -0.18983419239521027, -0.18100005388259888, -0.1721659004688263, -0.1633317619562149, -0.15449762344360352, -0.14566347002983093, -0.13682933151721954, -0.12799519300460815, -0.11916105449199677, -0.11032690852880478, -0.10149276256561279, -0.0926586240530014, -0.08382448554039001, -0.07499033957719803, -0.06615619361400604, -0.05732205510139465, -0.048487912863492966, -0.03965377062559128, -0.03081962838768959, -0.021985486149787903, -0.013151343911886215, -0.004317201673984528, 0.00451694056391716, 0.013351082801818848, 0.022185225039720535, 0.031019367277622223, 0.03985350951552391, 0.0486876517534256, 0.057521793991327286, 0.06635593622922897, 0.07519008219242096, 0.08402422070503235, 0.09285835921764374, 0.10169250518083572, 0.11052665114402771, 0.1193607896566391, 0.1281949281692505, 0.13702908158302307, 0.14586322009563446, 0.15469735860824585, 0.16353149712085724, 0.17236563563346863, 0.1811997890472412, 0.1900339275598526, 0.198868066072464, 0.20770221948623657, 0.21653635799884796, 0.22537049651145935, 0.23420463502407074, 0.24303877353668213, 0.2518729269504547, 0.2607070803642273, 0.2695412039756775, 0.2783753573894501, 0.28720948100090027, 0.29604363441467285, 0.30487778782844543, 0.31371191143989563, 0.3225460648536682, 0.3313801884651184, 0.340214341878891, 0.3490484952926636, 0.35788261890411377, 0.36671677231788635]}, "parameters/graph_3conv2.weight": {"_type": "histogram", "values": [2.0, 7.0, 6.0, 8.0, 23.0, 39.0, 61.0, 114.0, 167.0, 200.0, 193.0, 190.0, 210.0, 208.0, 226.0, 214.0, 184.0, 205.0, 218.0, 223.0, 218.0, 226.0, 197.0, 215.0, 210.0, 227.0, 210.0, 209.0, 227.0, 190.0, 223.0, 198.0, 190.0, 219.0, 190.0, 198.0, 197.0, 216.0, 232.0, 224.0, 229.0, 201.0, 209.0, 200.0, 223.0, 205.0, 218.0, 186.0, 154.0, 136.0, 124.0, 79.0, 51.0, 35.0, 15.0, 14.0, 10.0, 5.0, 3.0, 1.0, 0.0, 1.0, 2.0, 1.0], "bins": [-0.11419209837913513, -0.11046043038368225, -0.10672875493764877, -0.1029970794916153, -0.09926541149616241, -0.09553374350070953, -0.09180206805467606, -0.08807039260864258, -0.0843387246131897, -0.08060705661773682, -0.07687538117170334, -0.07314370572566986, -0.06941203773021698, -0.0656803697347641, -0.06194869428873062, -0.05821702256798744, -0.05448535084724426, -0.05075367912650108, -0.047022007405757904, -0.043290335685014725, -0.039558663964271545, -0.035826992243528366, -0.03209532052278519, -0.028363648802042007, -0.024631977081298828, -0.02090030536055565, -0.01716863363981247, -0.01343696191906929, -0.00970529019832611, -0.0059736184775829315, -0.002241946756839752, 0.0014897249639034271, 0.005221404135227203, 0.008953075855970383, 0.012684747576713562, 0.01641641929745674, 0.02014809101819992, 0.0238797627389431, 0.02761143445968628, 0.03134310618042946, 0.03507477790117264, 0.03880644962191582, 0.042538121342659, 0.046269793063402176, 0.050001464784145355, 0.053733136504888535, 0.057464808225631714, 0.06119647994637489, 0.06492815166711807, 0.06865982711315155, 0.07239149510860443, 0.07612316310405731, 0.07985483855009079, 0.08358651399612427, 0.08731818199157715, 0.09104984998703003, 0.09478152543306351, 0.09851320087909698, 0.10224486887454987, 0.10597653687000275, 0.10970821231603622, 0.1134398877620697, 0.11717155575752258, 0.12090322375297546, 0.12463489919900894]}, "parameters/graph_3conv2.bias": {"_type": "histogram", "values": [3.0, 1.0, 3.0, 3.0, 0.0, 0.0, 3.0, 1.0, 2.0, 4.0, 0.0, 2.0, 1.0, 0.0, 0.0, 0.0, 2.0, 1.0, 1.0, 2.0, 1.0, 2.0, 2.0, 2.0, 1.0, 0.0, 1.0, 1.0, 1.0, 1.0, 4.0, 2.0, 0.0, 0.0, 4.0, 0.0, 1.0, 1.0, 1.0, 1.0, 1.0, 0.0, 0.0, 1.0, 1.0, 1.0, 0.0, 1.0, 0.0, 0.0, 1.0, 0.0, 0.0, 0.0, 1.0, 0.0, 0.0, 0.0, 0.0, 0.0, 0.0, 0.0, 0.0, 2.0], "bins": [-0.08491487801074982, -0.08049657940864563, -0.07607828080654144, -0.07165998220443726, -0.06724168360233307, -0.06282338500022888, -0.05840509012341499, -0.053986791521310806, -0.04956849291920662, -0.04515019431710243, -0.040731895714998245, -0.03631360083818436, -0.03189530223608017, -0.027477001771330833, -0.023058705031871796, -0.01864040642976761, -0.014222107827663422, -0.009803809225559235, -0.005385511554777622, -0.0009672138839960098, 0.003451084718108177, 0.007869383320212364, 0.012287680059671402, 0.01670597866177559, 0.021124273538589478, 0.025542572140693665, 0.02996087074279785, 0.03437916934490204, 0.038797467947006226, 0.04321576654911041, 0.0476340614259243, 0.05205236002802849, 0.056470662355422974, 0.06088896095752716, 0.06530725955963135, 0.06972555816173553, 0.07414385676383972, 0.07856215536594391, 0.0829804539680481, 0.08739875257015228, 0.09181705117225647, 0.09623534977436066, 0.10065364837646484, 0.10507194697856903, 0.10949024558067322, 0.1139085441827774, 0.11832684278488159, 0.12274514138698578, 0.12716343998908997, 0.13158173859119415, 0.13600003719329834, 0.14041833579540253, 0.1448366343975067, 0.1492549329996109, 0.1536732316017151, 0.15809153020381927, 0.16250981390476227, 0.16692811250686646, 0.17134641110897064, 0.17576470971107483, 0.18018300831317902, 0.1846013069152832, 0.1890196055173874, 0.19343790411949158, 0.19785620272159576]}, "parameters/graph_3conv3.weight": {"_type": "histogram", "values": [1.0, 2.0, 3.0, 8.0, 21.0, 43.0, 72.0, 140.0, 284.0, 565.0, 1200.0, 2266.0, 3364.0, 3680.0, 3598.0, 3686.0, 3722.0, 3633.0, 3532.0, 3682.0, 3720.0, 3516.0, 3642.0, 3658.0, 3671.0, 3627.0, 3626.0, 3589.0, 3728.0, 3629.0, 3671.0, 3684.0, 3603.0, 3702.0, 3668.0, 3642.0, 3669.0, 3619.0, 3677.0, 3737.0, 3747.0, 3631.0, 3579.0, 3735.0, 3584.0, 3635.0, 3584.0, 3453.0, 3317.0, 3031.0, 2563.0, 1761.0, 803.0, 243.0, 112.0, 42.0, 27.0, 9.0, 10.0, 1.0, 5.0, 2.0, 1.0, 1.0], "bins": [-0.06620610505342484, -0.06415608525276184, -0.06210605800151825, -0.060056038200855255, -0.05800601467490196, -0.05595599114894867, -0.053905971348285675, -0.05185594782233238, -0.04980592429637909, -0.047755900770425797, -0.045705877244472504, -0.04365585744380951, -0.041605833917856216, -0.039555810391902924, -0.03750579059123993, -0.035455767065286636, -0.033405743539333344, -0.03135572001338005, -0.029305698350071907, -0.027255676686763763, -0.02520565316081047, -0.023155629634857178, -0.021105607971549034, -0.01905558630824089, -0.017005562782287598, -0.01495554018765688, -0.012905517593026161, -0.010855494998395443, -0.008805472403764725, -0.0067554498091340065, -0.004705427214503288, -0.00265540461987257, -0.0006053894758224487, 0.0014446331188082695, 0.0034946557134389877, 0.005544678308069706, 0.007594700902700424, 0.009644723497331142, 0.01169474609196186, 0.013744768686592579, 0.015794791281223297, 0.01784481480717659, 0.019894836470484734, 0.021944858133792877, 0.02399488165974617, 0.026044905185699463, 0.028094926849007607, 0.03014494851231575, 0.03219497203826904, 0.034244995564222336, 0.03629501909017563, 0.03834503889083862, 0.040395062416791916, 0.04244508594274521, 0.0444951057434082, 0.046545129269361496, 0.04859515279531479, 0.05064517632126808, 0.052695199847221375, 0.05474521964788437, 0.05679524317383766, 0.058845266699790955, 0.06089528650045395, 0.06294531375169754, 0.06499533355236053]}, "parameters/graph_3conv3.bias": {"_type": "histogram", "values": [1.0, 0.0, 0.0, 0.0, 0.0, 2.0, 3.0, 3.0, 8.0, 3.0, 3.0, 10.0, 13.0, 10.0, 5.0, 6.0, 7.0, 6.0, 4.0, 6.0, 10.0, 7.0, 6.0, 8.0, 10.0, 8.0, 3.0, 8.0, 7.0, 10.0, 6.0, 2.0, 6.0, 5.0, 3.0, 9.0, 5.0, 5.0, 3.0, 1.0, 5.0, 6.0, 2.0, 3.0, 3.0, 4.0, 2.0, 2.0, 2.0, 0.0, 2.0, 0.0, 2.0, 1.0, 2.0, 2.0, 0.0, 4.0, 0.0, 0.0, 0.0, 0.0, 0.0, 2.0], "bins": [-0.06926123797893524, -0.06693670898675919, -0.06461217254400253, -0.06228763982653618, -0.059963107109069824, -0.05763857439160347, -0.055314041674137115, -0.05298951268196106, -0.05066497623920441, -0.04834044352173805, -0.0460159108042717, -0.043691378086805344, -0.04136684536933899, -0.039042312651872635, -0.03671777993440628, -0.034393250942230225, -0.03206871822476387, -0.029744185507297516, -0.02741965278983116, -0.025095120072364807, -0.022770587354898453, -0.0204460546374321, -0.018121523782610893, -0.01579699106514454, -0.013472460210323334, -0.01114792749285698, -0.008823394775390625, -0.006498862989246845, -0.004174330271780491, -0.0018497975543141365, 0.00047473423182964325, 0.0027992669492959976, 0.005123801529407501, 0.007448334246873856, 0.00977286696434021, 0.01209739875048399, 0.014421931467950344, 0.016746465116739273, 0.019070995971560478, 0.021395528689026833, 0.023720063269138336, 0.02604459598660469, 0.028369128704071045, 0.0306936614215374, 0.033018194139003754, 0.03534272685647011, 0.03766725957393646, 0.03999178856611252, 0.04231632128357887, 0.04464085400104523, 0.04696538671851158, 0.049289919435977936, 0.05161445215344429, 0.053938984870910645, 0.0562635138630867, 0.05858805030584335, 0.06091257929801941, 0.06323710829019547, 0.06556164473295212, 0.06788617372512817, 0.07021071016788483, 0.07253523916006088, 0.07485977560281754, 0.07718430459499359, 0.07950884103775024]}, "parameters/graph_3fc1.weight": {"_type": "histogram", "values": [3.0, 2.0, 2.0, 2.0, 9.0, 11.0, 8.0, 10.0, 30.0, 49.0, 77.0, 74.0, 117.0, 165.0, 251.0, 312.0, 518.0, 847.0, 1313.0, 2440.0, 5147.0, 14390.0, 16582.0, 16647.0, 16693.0, 16750.0, 16784.0, 16680.0, 16900.0, 16652.0, 16628.0, 16527.0, 16472.0, 16467.0, 16316.0, 15733.0, 15048.0, 13203.0, 7033.0, 878.0, 331.0, 196.0, 143.0, 107.0, 76.0, 70.0, 59.0, 34.0, 27.0, 32.0, 9.0, 11.0, 15.0, 4.0, 8.0, 5.0, 4.0, 3.0, 2.0, 1.0, 1.0, 1.0, 1.0, 2.0], "bins": [-0.07137017697095871, -0.06898797303438187, -0.06660576164722443, -0.06422355771064758, -0.06184135377407074, -0.0594591461122036, -0.057076938450336456, -0.05469473451375961, -0.05231252685189247, -0.04993031919002533, -0.047548115253448486, -0.045165907591581345, -0.0427836999297142, -0.04040149599313736, -0.03801928833127022, -0.035637080669403076, -0.03325487673282623, -0.03087267093360424, -0.028490465134382248, -0.026108257472515106, -0.023726051673293114, -0.02134384587407112, -0.01896163821220398, -0.016579432412981987, -0.014197226613759995, -0.011815020814538002, -0.009432814083993435, -0.007050607819110155, -0.004668401554226875, -0.002286195755004883, 9.60109755396843e-05, 0.0024782177060842514, 0.004860423505306244, 0.007242629770189524, 0.009624836035072803, 0.01200704276561737, 0.014389248564839363, 0.016771454364061356, 0.019153662025928497, 0.02153586782515049, 0.023918073624372482, 0.026300279423594475, 0.028682485222816467, 0.03106469288468361, 0.03344690054655075, 0.035829104483127594, 0.038211312144994736, 0.04059351980686188, 0.04297572374343872, 0.04535793140530586, 0.047740135341882706, 0.05012234300374985, 0.05250454694032669, 0.05488675460219383, 0.057268962264060974, 0.05965116620063782, 0.06203337386250496, 0.0644155815243721, 0.06679778546094894, 0.06917998939752579, 0.07156220078468323, 0.07394440472126007, 0.07632660865783691, 0.07870882004499435, 0.0810910239815712]}, "parameters/graph_3fc1.bias": {"_type": "histogram", "values": [1.0, 0.0, 0.0, 0.0, 0.0, 0.0, 0.0, 0.0, 0.0, 0.0, 0.0, 0.0, 0.0, 0.0, 0.0, 0.0, 0.0, 0.0, 0.0, 0.0, 0.0, 0.0, 0.0, 0.0, 0.0, 0.0, 0.0, 0.0, 0.0, 0.0, 0.0, 0.0, 0.0, 0.0, 0.0, 0.0, 1.0, 0.0, 2.0, 3.0, 9.0, 13.0, 15.0, 14.0, 16.0, 11.0, 17.0, 16.0, 2.0, 0.0, 1.0, 1.0, 1.0, 1.0, 1.0, 0.0, 1.0, 0.0, 0.0, 0.0, 0.0, 0.0, 1.0, 1.0], "bins": [-0.21565644443035126, -0.21078868210315704, -0.20592091977596283, -0.20105315744876862, -0.1961854100227356, -0.19131764769554138, -0.18644988536834717, -0.18158212304115295, -0.17671436071395874, -0.17184659838676453, -0.1669788360595703, -0.1621110737323761, -0.15724331140518188, -0.15237556397914886, -0.14750780165195465, -0.14264003932476044, -0.13777227699756622, -0.132904514670372, -0.1280367523431778, -0.12316899746656418, -0.11830123513936996, -0.11343347281217575, -0.10856571793556213, -0.10369795560836792, -0.0988301932811737, -0.09396243095397949, -0.08909466862678528, -0.08422691375017166, -0.07935915142297745, -0.07449138909578323, -0.06962363421916962, -0.0647558718919754, -0.059888094663619995, -0.05502033233642578, -0.050152573734521866, -0.04528481513261795, -0.04041705280542374, -0.03554929047822952, -0.030681531876325607, -0.025813773274421692, -0.020946010947227478, -0.016078250482678413, -0.011210490018129349, -0.006342729553580284, -0.0014749690890312195, 0.003392791375517845, 0.00826055184006691, 0.013128310441970825, 0.01799607276916504, 0.022863833233714104, 0.02773159369826317, 0.032599352300167084, 0.0374671146273613, 0.04233487695455551, 0.04720263555645943, 0.05207039415836334, 0.056938156485557556, 0.06180591881275177, 0.06667368113994598, 0.0715414360165596, 0.07640919834375381, 0.08127696067094803, 0.08614471554756165, 0.09101247787475586, 0.09588024020195007]}, "parameters/graph_3fc2.weight": {"_type": "histogram", "values": [1.0, 0.0, 0.0, 0.0, 0.0, 1.0, 1.0, 0.0, 0.0, 3.0, 0.0, 1.0, 0.0, 0.0, 1.0, 1.0, 2.0, 1.0, 1.0, 0.0, 1.0, 2.0, 1.0, 1.0, 3.0, 5.0, 9.0, 23.0, 21.0, 18.0, 26.0, 30.0, 21.0, 17.0, 24.0, 8.0, 5.0, 4.0, 4.0, 2.0, 2.0, 4.0, 1.0, 1.0, 0.0, 0.0, 4.0, 0.0, 0.0, 1.0, 0.0, 1.0, 1.0, 0.0, 0.0, 0.0, 1.0, 1.0, 0.0, 0.0, 0.0, 0.0, 0.0, 1.0], "bins": [-0.6482227444648743, -0.6273772716522217, -0.6065317988395691, -0.5856863260269165, -0.5648407936096191, -0.5439953207969666, -0.523149847984314, -0.5023043751716614, -0.4814589023590088, -0.4606134295463562, -0.4397679567337036, -0.41892245411872864, -0.39807698130607605, -0.37723150849342346, -0.3563860058784485, -0.3355405330657959, -0.3146950602531433, -0.2938495874404907, -0.27300411462783813, -0.25215861201286316, -0.23131313920021057, -0.21046766638755798, -0.1896221786737442, -0.16877669095993042, -0.14793121814727783, -0.12708574533462524, -0.10624025762081146, -0.08539477735757828, -0.06454929709434509, -0.04370381683111191, -0.022858336567878723, -0.0020128488540649414, 0.018832683563232422, 0.03967816382646561, 0.06052364408969879, 0.08136912435293198, 0.10221460461616516, 0.12306008487939835, 0.14390556514263153, 0.1647510528564453, 0.1855965256690979, 0.2064419984817505, 0.22728748619556427, 0.24813297390937805, 0.26897844672203064, 0.2898239195346832, 0.3106694221496582, 0.3315148949623108, 0.3523603677749634, 0.37320584058761597, 0.39405131340026855, 0.41489681601524353, 0.4357422888278961, 0.4565877616405487, 0.4774332642555237, 0.49827873706817627, 0.5191242098808289, 0.5399696826934814, 0.560815155506134, 0.5816606283187866, 0.602506160736084, 0.6233516335487366, 0.6441971063613892, 0.6650425791740417, 0.6858880519866943]}, "parameters/graph_3fc2.bias": {"_type": "histogram", "values": [1.0, 0.0, 0.0, 0.0, 0.0, 0.0, 0.0, 0.0, 0.0, 0.0, 0.0, 0.0, 0.0, 0.0, 0.0, 0.0, 0.0, 0.0, 0.0, 0.0, 0.0, 0.0, 0.0, 0.0, 0.0, 0.0, 0.0, 0.0, 0.0, 0.0, 0.0, 0.0, 0.0, 0.0, 0.0, 0.0, 0.0, 0.0, 0.0, 0.0, 0.0, 0.0, 0.0, 0.0, 0.0, 0.0, 0.0, 0.0, 0.0, 0.0, 0.0, 0.0, 0.0, 0.0, 0.0, 0.0, 0.0, 0.0, 0.0, 0.0, 0.0, 0.0, 0.0, 1.0], "bins": [-0.728751540184021, -0.7057415843009949, -0.6827316284179688, -0.6597217321395874, -0.6367117762565613, -0.6137018203735352, -0.590691864490509, -0.5676819086074829, -0.5446720123291016, -0.5216620564460754, -0.4986521303653717, -0.4756421744823456, -0.45263224840164185, -0.4296222925186157, -0.4066123366355896, -0.38360241055488586, -0.36059245467185974, -0.3375824987888336, -0.3145725727081299, -0.29156261682510376, -0.2685526907444, -0.2455427348613739, -0.22253279387950897, -0.19952285289764404, -0.17651289701461792, -0.153502956032753, -0.13049301505088806, -0.10748306661844254, -0.0844731256365776, -0.06146318465471268, -0.03845323622226715, -0.015443295240402222, 0.007566630840301514, 0.030576573684811592, 0.05358651652932167, 0.0765964612364769, 0.09960640221834183, 0.12261634320020676, 0.14562629163265228, 0.1686362326145172, 0.19164615869522095, 0.21465609967708588, 0.2376660406589508, 0.26067599654197693, 0.28368592262268066, 0.3066958785057068, 0.3297058343887329, 0.35271576046943665, 0.37572571635246277, 0.3987356722354889, 0.4217455983161926, 0.44475555419921875, 0.4677654802799225, 0.4907754361629486, 0.5137853622436523, 0.5367953181266785, 0.5598052740097046, 0.5828152298927307, 0.6058251857757568, 0.6288350820541382, 0.6518450379371643, 0.6748549938201904, 0.6978649497032166, 0.7208749055862427, 0.743884801864624]}, "gradients/graph_3fc2.bias": {"_type": "histogram", "values": [1.0, 0.0, 0.0, 0.0, 0.0, 0.0, 0.0, 0.0, 0.0, 0.0, 0.0, 0.0, 0.0, 0.0, 0.0, 0.0, 0.0, 0.0, 0.0, 0.0, 0.0, 0.0, 0.0, 0.0, 0.0, 0.0, 0.0, 0.0, 0.0, 0.0, 0.0, 0.0, 0.0, 0.0, 0.0, 0.0, 0.0, 0.0, 0.0, 0.0, 0.0, 0.0, 0.0, 0.0, 0.0, 0.0, 0.0, 0.0, 0.0, 0.0, 0.0, 0.0, 0.0, 0.0, 0.0, 0.0, 0.0, 0.0, 0.0, 0.0, 0.0, 0.0, 0.0, 1.0], "bins": [-0.017794087529182434, -0.01723802275955677, -0.016681956127285957, -0.016125891357660294, -0.01556982658803463, -0.015013760887086391, -0.014457695186138153, -0.01390163041651249, -0.013345564715564251, -0.012789499014616013, -0.012233434244990349, -0.01167736854404211, -0.011121302843093872, -0.010565238073468208, -0.01000917237251997, -0.009453106671571732, -0.008897041901946068, -0.00834097620099783, -0.007784911431372166, -0.007228845730423927, -0.006672780495136976, -0.006116715259850025, -0.005560649558901787, -0.005004584323614836, -0.004448519088327885, -0.0038924538530409336, -0.003336388384923339, -0.002780322916805744, -0.002224257681518793, -0.001668192446231842, -0.0011121269781142473, -0.0005560615099966526, 3.725290298461914e-09, 0.0005560690769925714, 0.0011121344286948442, 0.0016681997803971171, 0.00222426513209939, 0.002780330367386341, 0.003336395835503936, 0.0038924613036215305, 0.004448526538908482, 0.005004591774195433, 0.005560657009482384, 0.006116722710430622, 0.006672787945717573, 0.007228853181004524, 0.007784918881952763, 0.008340984582901001, 0.008897049352526665, 0.009453115053474903, 0.010009179823100567, 0.010565245524048805, 0.011121310293674469, 0.011677375994622707, 0.012233441695570946, 0.01278950646519661, 0.013345572166144848, 0.013901637867093086, 0.01445770263671875, 0.015013768337666988, 0.015569834038615227, 0.01612589880824089, 0.016681963577866554, 0.017238030210137367, 0.01779409497976303]}, "gradients/graph_3fc2.weight": {"_type": "histogram", "values": [1.0, 0.0, 0.0, 0.0, 1.0, 0.0, 0.0, 0.0, 0.0, 0.0, 0.0, 0.0, 0.0, 0.0, 0.0, 0.0, 0.0, 1.0, 1.0, 1.0, 0.0, 1.0, 0.0, 1.0, 2.0, 2.0, 2.0, 4.0, 4.0, 7.0, 13.0, 140.0, 34.0, 13.0, 7.0, 4.0, 4.0, 2.0, 2.0, 2.0, 1.0, 0.0, 1.0, 0.0, 1.0, 1.0, 1.0, 0.0, 0.0, 0.0, 0.0, 0.0, 0.0, 0.0, 0.0, 0.0, 0.0, 0.0, 0.0, 1.0, 0.0, 0.0, 0.0, 1.0], "bins": [-0.088376984000206, -0.08561520278453827, -0.08285342156887054, -0.08009164035320282, -0.0773298591375351, -0.07456807792186737, -0.07180629670619965, -0.06904451549053192, -0.0662827342748642, -0.06352095305919647, -0.06075917184352875, -0.05799739062786102, -0.0552356094121933, -0.052473828196525574, -0.04971204698085785, -0.046950265765190125, -0.0441884845495224, -0.041426703333854675, -0.03866492211818695, -0.035903140902519226, -0.0331413596868515, -0.030379578471183777, -0.027617797255516052, -0.024856016039848328, -0.022094234824180603, -0.01933245360851288, -0.016570672392845154, -0.01380889117717743, -0.011047109961509705, -0.00828532874584198, -0.005523547530174255, -0.0027617663145065308, 1.4901161193847656e-08, 0.0027617961168289185, 0.005523577332496643, 0.008285358548164368, 0.011047139763832092, 0.013808920979499817, 0.01657070219516754, 0.019332483410835266, 0.02209426462650299, 0.024856045842170715, 0.02761782705783844, 0.030379608273506165, 0.03314138948917389, 0.035903170704841614, 0.03866495192050934, 0.04142673313617706, 0.04418851435184479, 0.04695029556751251, 0.04971207678318024, 0.05247385799884796, 0.055235639214515686, 0.05799742043018341, 0.060759201645851135, 0.06352098286151886, 0.06628276407718658, 0.06904454529285431, 0.07180632650852203, 0.07456810772418976, 0.07732988893985748, 0.08009167015552521, 0.08285345137119293, 0.08561523258686066, 0.08837701380252838]}, "gradients/graph_3fc1.bias": {"_type": "histogram", "values": [2.0, 0.0, 1.0, 1.0, 0.0, 1.0, 0.0, 0.0, 1.0, 1.0, 0.0, 0.0, 1.0, 3.0, 1.0, 2.0, 3.0, 4.0, 70.0, 16.0, 5.0, 1.0, 7.0, 3.0, 0.0, 2.0, 0.0, 0.0, 0.0, 2.0, 0.0, 0.0, 0.0, 0.0, 0.0, 0.0, 0.0, 0.0, 0.0, 0.0, 0.0, 0.0, 0.0, 0.0, 0.0, 0.0, 0.0, 0.0, 0.0, 0.0, 0.0, 0.0, 0.0, 0.0, 0.0, 0.0, 0.0, 0.0, 0.0, 0.0, 0.0, 0.0, 0.0, 1.0], "bins": [-0.0061590406112372875, -0.005831149872392416, -0.0055032591335475445, -0.005175368394702673, -0.0048474776558578014, -0.00451958691701293, -0.004191695712506771, -0.0038638052064925432, -0.0035359144676476717, -0.0032080237288028, -0.0028801329899579287, -0.0025522420182824135, -0.002224351279437542, -0.0018964606570079923, -0.001568569801747799, -0.0012406790629029274, -0.0009127883240580559, -0.0005848975852131844, -0.0002570067881606519, 7.088400889188051e-05, 0.00039877474773675203, 0.0007266654865816236, 0.001054556341841817, 0.0013824470806866884, 0.0017103380523622036, 0.002038228791207075, 0.0023661195300519466, 0.002694010268896818, 0.0030219010077416897, 0.003349791746586561, 0.0036776827182620764, 0.0040055736899375916, 0.0043334634974598885, 0.00466135423630476, 0.0049892449751496315, 0.005317135713994503, 0.0056450264528393745, 0.005972917191684246, 0.006300807930529118, 0.006628698669373989, 0.006956589408218861, 0.007284480147063732, 0.007612370885908604, 0.007940261624753475, 0.008268152363598347, 0.008596043102443218, 0.00892393384128809, 0.009251824580132961, 0.009579716250300407, 0.009907606989145279, 0.01023549772799015, 0.010563388466835022, 0.010891279205679893, 0.011219169944524765, 0.011547060683369637, 0.011874951422214508, 0.01220284216105938, 0.012530732899904251, 0.012858623638749123, 0.013186514377593994, 0.013514405116438866, 0.013842295855283737, 0.014170186594128609, 0.01449807733297348, 0.014825968071818352]}, "gradients/graph_3fc1.weight": {"_type": "histogram", "values": [1.0, 0.0, 0.0, 0.0, 0.0, 1.0, 0.0, 1.0, 1.0, 1.0, 1.0, 0.0, 1.0, 2.0, 4.0, 8.0, 5.0, 14.0, 22.0, 31.0, 40.0, 69.0, 84.0, 144.0, 270.0, 499.0, 858.0, 2053.0, 6403.0, 267106.0, 13172.0, 2336.0, 721.0, 334.0, 192.0, 114.0, 94.0, 48.0, 51.0, 51.0, 35.0, 24.0, 24.0, 12.0, 11.0, 10.0, 14.0, 7.0, 5.0, 6.0, 7.0, 4.0, 7.0, 5.0, 1.0, 0.0, 1.0, 2.0, 1.0, 0.0, 1.0, 1.0, 1.0, 1.0], "bins": [-0.11649209260940552, -0.11256486922502518, -0.10863763839006424, -0.1047104150056839, -0.10078318417072296, -0.09685596078634262, -0.09292873740196228, -0.08900150656700134, -0.085074283182621, -0.08114705979824066, -0.07721982896327972, -0.07329260557889938, -0.06936538219451904, -0.0654381513595581, -0.061510927975177765, -0.057583700865507126, -0.05365647375583649, -0.04972924664616585, -0.04580201953649521, -0.04187479615211487, -0.03794756904244423, -0.03402034193277359, -0.0300931166857481, -0.02616589143872261, -0.02223866432905197, -0.018311437219381332, -0.014384211972355843, -0.010456985794007778, -0.006529759615659714, -0.0026025325059890747, 0.001324692741036415, 0.005251917988061905, 0.00917913019657135, 0.013106356374919415, 0.01703358255326748, 0.02096080780029297, 0.024888034909963608, 0.028815262019634247, 0.03274248540401459, 0.036669712513685226, 0.040596939623355865, 0.044524166733026505, 0.048451393842697144, 0.052378617227077484, 0.05630584433674812, 0.06023307144641876, 0.0641602948307991, 0.06808751821517944, 0.07201474905014038, 0.07594197243452072, 0.07986920326948166, 0.083796426653862, 0.08772365748882294, 0.09165088087320328, 0.09557810425758362, 0.09950533509254456, 0.1034325584769249, 0.10735978186130524, 0.11128701269626617, 0.11521423608064651, 0.11914145946502686, 0.12306869029998779, 0.12699592113494873, 0.13092313706874847, 0.1348503679037094]}, "gradients/graph_3conv3.weight": {"_type": "histogram", "values": [1.0, 0.0, 0.0, 1.0, 2.0, 4.0, 1.0, 1.0, 5.0, 4.0, 3.0, 6.0, 6.0, 9.0, 15.0, 20.0, 16.0, 18.0, 40.0, 55.0, 47.0, 70.0, 118.0, 124.0, 214.0, 290.0, 425.0, 556.0, 830.0, 1226.0, 2001.0, 3712.0, 7659.0, 29580.0, 78814.0, 11499.0, 4577.0, 2199.0, 1185.0, 738.0, 482.0, 301.0, 186.0, 139.0, 72.0, 52.0, 40.0, 29.0, 21.0, 15.0, 17.0, 6.0, 5.0, 1.0, 7.0, 3.0, 4.0, 1.0, 0.0, 2.0, 0.0, 1.0, 0.0, 1.0], "bins": [-0.14794164896011353, -0.1436045616865158, -0.1392674744129181, -0.13493040204048157, -0.13059331476688385, -0.12625622749328613, -0.12191914021968842, -0.1175820529460907, -0.11324496567249298, -0.10890787839889526, -0.10457079857587814, -0.10023371130228043, -0.09589662402868271, -0.09155954420566559, -0.08722245693206787, -0.08288536965847015, -0.07854828983545303, -0.07421120256185532, -0.0698741227388382, -0.06553703546524048, -0.06119994819164276, -0.05686286464333534, -0.052525781095027924, -0.048188693821430206, -0.043851613998413086, -0.03951453045010567, -0.03517744317650795, -0.03084035962820053, -0.026503274217247963, -0.022166188806295395, -0.017829105257987976, -0.013492019847035408, -0.009154930710792542, -0.004817845765501261, -0.00048076082020998, 0.0038563236594200134, 0.008193409070372581, 0.01253049448132515, 0.01686757802963257, 0.021204663440585136, 0.025541752576828003, 0.02987883798778057, 0.03421592339873314, 0.03855300694704056, 0.042890094220638275, 0.047227177768945694, 0.05156426131725311, 0.05590134859085083, 0.06023842841386795, 0.06457551568746567, 0.06891259551048279, 0.0732496827840805, 0.07758677005767822, 0.08192385733127594, 0.08626093715429306, 0.09059802442789078, 0.0949351042509079, 0.09927219152450562, 0.10360927134752274, 0.10794635862112045, 0.11228344589471817, 0.11662052571773529, 0.12095761299133301, 0.12529470026493073, 0.12963178753852844]}, "gradients/graph_3conv3.bias": {"_type": "histogram", "values": [1.0, 1.0, 1.0, 0.0, 1.0, 0.0, 4.0, 0.0, 0.0, 0.0, 0.0, 2.0, 0.0, 1.0, 1.0, 2.0, 0.0, 0.0, 0.0, 1.0, 0.0, 3.0, 4.0, 3.0, 0.0, 2.0, 1.0, 1.0, 2.0, 4.0, 5.0, 4.0, 5.0, 6.0, 12.0, 7.0, 10.0, 17.0, 11.0, 16.0, 11.0, 13.0, 14.0, 15.0, 6.0, 7.0, 10.0, 8.0, 6.0, 6.0, 5.0, 2.0, 5.0, 1.0, 4.0, 5.0, 1.0, 1.0, 4.0, 2.0, 0.0, 1.0, 0.0, 1.0], "bins": [-0.006968349684029818, -0.006782540585845709, -0.006596731022000313, -0.006410921923816204, -0.006225112825632095, -0.006039303727447987, -0.005853494629263878, -0.005667685065418482, -0.005481875967234373, -0.005296066869050264, -0.005110257305204868, -0.00492444820702076, -0.004738639108836651, -0.004552830010652542, -0.004367020912468433, -0.004181211348623037, -0.003995402250438929, -0.00380959315225482, -0.0036237838212400675, -0.003437974490225315, -0.0032521653920412064, -0.0030663562938570976, -0.0028805469628423452, -0.002694737631827593, -0.002508928533643484, -0.0023231194354593754, -0.002137310104444623, -0.0019515008898451924, -0.0017656916752457619, -0.0015798824606463313, -0.0013940732460469007, -0.0012082640314474702, -0.001022455282509327, -0.0008366460679098964, -0.0006508368533104658, -0.00046502763871103525, -0.0002792184241116047, -9.340920951217413e-05, 9.240000508725643e-05, 0.000278209219686687, 0.00046401843428611755, 0.0006498276488855481, 0.0008356368634849787, 0.0010214460780844092, 0.0012072552926838398, 0.0013930645072832704, 0.001578873721882701, 0.0017646829364821315, 0.001950492151081562, 0.0021363012492656708, 0.002322110580280423, 0.0025079199112951756, 0.0026937290094792843, 0.002879538107663393, 0.0030653474386781454, 0.003251156769692898, 0.0034369658678770065, 0.0036227749660611153, 0.0038085842970758677, 0.00399439362809062, 0.004180202726274729, 0.0043660118244588375, 0.0045518213883042336, 0.004737630486488342, 0.004923439584672451]}, "gradients/graph_3conv2.weight": {"_type": "histogram", "values": [1.0, 0.0, 0.0, 0.0, 0.0, 0.0, 0.0, 1.0, 1.0, 1.0, 1.0, 2.0, 1.0, 5.0, 5.0, 8.0, 9.0, 10.0, 16.0, 18.0, 35.0, 40.0, 59.0, 77.0, 127.0, 188.0, 255.0, 406.0, 611.0, 1128.0, 2754.0, 1197.0, 685.0, 458.0, 296.0, 226.0, 163.0, 113.0, 79.0, 60.0, 50.0, 37.0, 23.0, 17.0, 16.0, 12.0, 5.0, 3.0, 4.0, 3.0, 3.0, 1.0, 0.0, 1.0, 0.0, 4.0, 0.0, 0.0, 0.0, 0.0, 0.0, 0.0, 0.0, 1.0], "bins": [-0.23183536529541016, -0.2242341786623001, -0.21663297712802887, -0.20903179049491882, -0.20143060386180878, -0.19382941722869873, -0.1862282156944275, -0.17862702906131744, -0.1710258424282074, -0.16342465579509735, -0.1558234542608261, -0.14822226762771606, -0.14062108099460602, -0.13301989436149597, -0.12541869282722473, -0.11781750619411469, -0.11021630465984344, -0.1026151105761528, -0.09501392394304276, -0.08741272985935211, -0.07981154322624207, -0.07221034914255142, -0.06460915505886078, -0.057007964700460434, -0.04940676689147949, -0.04180557653307915, -0.0342043861746788, -0.02660319209098816, -0.019002001732587814, -0.01140081137418747, -0.003799617290496826, 0.0038015730679035187, 0.011402755975723267, 0.01900394633412361, 0.026605138555169106, 0.0342063307762146, 0.041807521134614944, 0.04940871149301529, 0.05700990557670593, 0.06461109220981598, 0.07221227884292603, 0.07981347292661667, 0.08741465955972672, 0.09501585364341736, 0.1026170402765274, 0.11021823436021805, 0.11781942844390869, 0.12542061507701874, 0.13302181661128998, 0.14062300324440002, 0.14822420477867126, 0.1558253914117813, 0.16342657804489136, 0.1710277795791626, 0.17862896621227264, 0.1862301528453827, 0.19383135437965393, 0.20143254101276398, 0.20903374254703522, 0.21663492918014526, 0.2242361158132553, 0.23183730244636536, 0.2394385039806366, 0.24703969061374664, 0.2546408772468567]}, "gradients/graph_3conv2.bias": {"_type": "histogram", "values": [1.0, 1.0, 0.0, 0.0, 0.0, 0.0, 0.0, 0.0, 0.0, 0.0, 0.0, 0.0, 0.0, 0.0, 0.0, 0.0, 0.0, 0.0, 1.0, 0.0, 0.0, 0.0, 1.0, 0.0, 0.0, 1.0, 0.0, 0.0, 1.0, 1.0, 0.0, 1.0, 0.0, 0.0, 0.0, 0.0, 1.0, 1.0, 1.0, 1.0, 2.0, 0.0, 2.0, 0.0, 3.0, 1.0, 0.0, 1.0, 0.0, 2.0, 1.0, 2.0, 3.0, 3.0, 3.0, 7.0, 7.0, 3.0, 3.0, 4.0, 2.0, 1.0, 0.0, 2.0], "bins": [-0.021474353969097137, -0.021085543558001518, -0.02069673128426075, -0.02030792087316513, -0.01991911046206951, -0.019530300050973892, -0.019141487777233124, -0.018752677366137505, -0.018363866955041885, -0.017975056543946266, -0.017586244270205498, -0.01719743385910988, -0.01680862344801426, -0.01641981303691864, -0.01603100076317787, -0.015642190352082253, -0.015253379009664059, -0.014864567667245865, -0.014475757256150246, -0.014086945913732052, -0.013698135502636433, -0.013309324160218239, -0.01292051374912262, -0.012531702406704426, -0.012142891064286232, -0.011754079721868038, -0.011365269310772419, -0.010976457968354225, -0.010587647557258606, -0.010198836214840412, -0.009810024872422218, -0.009421214461326599, -0.009032403118908405, -0.008643591776490211, -0.008254781365394592, -0.007865970022976398, -0.007477159611880779, -0.0070883482694625854, -0.006699537392705679, -0.006310726515948772, -0.005921916104853153, -0.005533105228096247, -0.00514429435133934, -0.004755483008921146, -0.004366672597825527, -0.003977861255407333, -0.003589050378650427, -0.0032002395018935204, -0.00281142839230597, -0.0024226175155490637, -0.0020338064059615135, -0.001644995529204607, -0.0012561846524477005, -0.000867373775690794, -0.00047856266610324383, -8.975178934633732e-05, 0.0002990590874105692, 0.0006878700223751366, 0.001076680957339704, 0.0014654919505119324, 0.0018543028272688389, 0.0022431137040257454, 0.0026319248136132956, 0.003020735690370202, 0.0034095465671271086]}, "gradients/graph_3conv1.weight": {"_type": "histogram", "values": [1.0, 0.0, 0.0, 1.0, 0.0, 0.0, 0.0, 1.0, 0.0, 3.0, 1.0, 0.0, 1.0, 3.0, 2.0, 5.0, 4.0, 4.0, 4.0, 9.0, 6.0, 10.0, 11.0, 10.0, 14.0, 20.0, 25.0, 34.0, 103.0, 48.0, 21.0, 13.0, 17.0, 6.0, 5.0, 8.0, 2.0, 9.0, 4.0, 3.0, 4.0, 3.0, 2.0, 3.0, 3.0, 0.0, 2.0, 3.0, 0.0, 2.0, 0.0, 0.0, 0.0, 1.0, 0.0, 0.0, 0.0, 0.0, 0.0, 0.0, 0.0, 0.0, 0.0, 1.0], "bins": [-0.3966342806816101, -0.38275644183158875, -0.368878573179245, -0.35500073432922363, -0.3411228656768799, -0.3272450268268585, -0.31336718797683716, -0.2994893193244934, -0.28561145067214966, -0.2717336118221283, -0.25785574316978455, -0.24397790431976318, -0.23010003566741943, -0.21622219681739807, -0.20234434306621552, -0.18846648931503296, -0.1745886504650116, -0.16071079671382904, -0.14683294296264648, -0.13295510411262512, -0.11907724291086197, -0.10519938915967941, -0.09132154285907745, -0.0774436891078949, -0.06356585025787354, -0.04968799650669098, -0.03581014648079872, -0.021932296454906464, -0.008054442703723907, 0.005823411047458649, 0.019701257348060608, 0.033579111099243164, 0.047456949949264526, 0.06133480370044708, 0.07521265745162964, 0.0890905037522316, 0.10296835750341415, 0.11684621125459671, 0.13072405755519867, 0.14460191130638123, 0.15847977995872498, 0.17235763370990753, 0.1862354874610901, 0.20011332631111145, 0.2139911949634552, 0.22786903381347656, 0.24174688756465912, 0.2556247413158417, 0.26950258016586304, 0.2833804190158844, 0.29725828766822815, 0.3111361265182495, 0.32501399517059326, 0.3388918340206146, 0.352769672870636, 0.36664754152297974, 0.3805254101753235, 0.39440324902534485, 0.4082811176776886, 0.42215895652770996, 0.4360368251800537, 0.4499146640300751, 0.46379250288009644, 0.4776703715324402, 0.49154821038246155]}, "gradients/graph_3conv1.bias": {"_type": "histogram", "values": [1.0, 0.0, 0.0, 0.0, 0.0, 0.0, 0.0, 0.0, 0.0, 0.0, 0.0, 0.0, 0.0, 0.0, 0.0, 0.0, 0.0, 0.0, 0.0, 1.0, 0.0, 0.0, 0.0, 0.0, 0.0, 0.0, 0.0, 1.0, 1.0, 0.0, 0.0, 0.0, 0.0, 0.0, 0.0, 0.0, 0.0, 0.0, 1.0, 0.0, 0.0, 0.0, 0.0, 1.0, 0.0, 0.0, 0.0, 0.0, 0.0, 0.0, 0.0, 0.0, 1.0, 0.0, 1.0, 1.0, 0.0, 1.0, 1.0, 1.0, 1.0, 0.0, 2.0, 1.0], "bins": [-0.04512239992618561, -0.04434770718216896, -0.043573010712862015, -0.04279831796884537, -0.04202362149953842, -0.041248928755521774, -0.04047423228621483, -0.03969953954219818, -0.038924843072891235, -0.03815015032887459, -0.03737545385956764, -0.036600761115550995, -0.03582606464624405, -0.0350513719022274, -0.034276675432920456, -0.03350198268890381, -0.03272728621959686, -0.031952593475580215, -0.03117789700627327, -0.030403202399611473, -0.029628507792949677, -0.02885381318628788, -0.028079118579626083, -0.027304423972964287, -0.02652973122894764, -0.025755036622285843, -0.024980342015624046, -0.02420564740896225, -0.023430952802300453, -0.022656258195638657, -0.02188156358897686, -0.021106868982315063, -0.020332174375653267, -0.01955747976899147, -0.018782785162329674, -0.018008090555667877, -0.01723339594900608, -0.016458701342344284, -0.015684006735682487, -0.014909312129020691, -0.014134617522358894, -0.013359922915697098, -0.012585228309035301, -0.011810533702373505, -0.011035839095711708, -0.010261144489049911, -0.009486449882388115, -0.008711755275726318, -0.007937062531709671, -0.0071623679250478745, -0.006387673318386078, -0.005612978711724281, -0.004838284105062485, -0.004063589498400688, -0.003288895357400179, -0.0025142007507383823, -0.0017395056784152985, -0.0009648111299611628, -0.00019011658150702715, 0.0005845779087394476, 0.0013592725154012442, 0.0021339671220630407, 0.0029086614958941936, 0.0036833561025559902, 0.004458050709217787]}, "_wandb": {"runtime": 378}}