{"Train epoch_loss": 5.842536804448173e-06, "Test epoch_loss": 212.4887459874153, "Train accuracy": 0.9999555349349976, "Test accuracy": 0.8184000253677368, "_timestamp": 1677596189.8805184, "_runtime": 169.83590245246887, "_step": 42, "parameters/conv1.weight": {"_type": "histogram", "values": [1.0, 0.0, 1.0, 3.0, 4.0, 3.0, 1.0, 4.0, 7.0, 4.0, 7.0, 5.0, 4.0, 10.0, 12.0, 9.0, 4.0, 11.0, 4.0, 5.0, 9.0, 11.0, 11.0, 8.0, 6.0, 9.0, 8.0, 5.0, 4.0, 8.0, 7.0, 7.0, 11.0, 22.0, 8.0, 10.0, 8.0, 20.0, 5.0, 18.0, 6.0, 12.0, 10.0, 9.0, 12.0, 11.0, 10.0, 10.0, 6.0, 7.0, 5.0, 6.0, 7.0, 5.0, 9.0, 6.0, 2.0, 1.0, 1.0, 0.0, 0.0, 1.0, 1.0, 1.0], "bins": [-0.29937341809272766, -0.29034149646759033, -0.2813096046447754, -0.27227768301963806, -0.26324576139450073, -0.2542138397693634, -0.24518193304538727, -0.23615002632141113, -0.2271181046962738, -0.21808618307113647, -0.20905427634716034, -0.2000223696231842, -0.19099044799804688, -0.18195852637290955, -0.1729266196489334, -0.16389471292495728, -0.15486279129981995, -0.14583086967468262, -0.13679896295070648, -0.12776705622673035, -0.11873513460159302, -0.10970322042703629, -0.10067130625247955, -0.09163939207792282, -0.08260747790336609, -0.07357556372880936, -0.06454364955425262, -0.05551173537969589, -0.04647982120513916, -0.03744790703058243, -0.028415992856025696, -0.019384078681468964, -0.01035219430923462, -0.001320280134677887, 0.007711634039878845, 0.016743548214435577, 0.02577546238899231, 0.03480737656354904, 0.043839290738105774, 0.052871204912662506, 0.06190311908721924, 0.07093503326177597, 0.0799669474363327, 0.08899886161088943, 0.09803077578544617, 0.1070626899600029, 0.11609460413455963, 0.12512651085853577, 0.1341584324836731, 0.14319035410881042, 0.15222226083278656, 0.1612541675567627, 0.17028608918190002, 0.17931801080703735, 0.1883499175310135, 0.19738182425498962, 0.20641374588012695, 0.21544566750526428, 0.22447757422924042, 0.23350948095321655, 0.24254140257835388, 0.2515733242034912, 0.26060521602630615, 0.2696371376514435, 0.2786690592765808]}, "parameters/conv1.bias": {"_type": "histogram", "values": [1.0, 0.0, 0.0, 0.0, 1.0, 0.0, 2.0, 1.0, 0.0, 0.0, 1.0, 1.0, 0.0, 0.0, 0.0, 1.0, 1.0, 0.0, 0.0, 0.0, 0.0, 0.0, 0.0, 0.0, 0.0, 0.0, 0.0, 0.0, 0.0, 0.0, 0.0, 1.0, 1.0, 1.0, 0.0, 0.0, 0.0, 0.0, 0.0, 0.0, 0.0, 0.0, 0.0, 0.0, 0.0, 0.0, 1.0, 0.0, 0.0, 0.0, 1.0, 1.0, 0.0, 0.0, 0.0, 0.0, 0.0, 0.0, 0.0, 0.0, 0.0, 0.0, 0.0, 1.0], "bins": [-0.2587970793247223, -0.2465490996837616, -0.2343011200428009, -0.2220531404018402, -0.20980516076087952, -0.19755718111991882, -0.18530918657779694, -0.17306120693683624, -0.16081322729587555, -0.14856524765491486, -0.13631726801395416, -0.12406928092241287, -0.11182130128145218, -0.09957332164049149, -0.0873253345489502, -0.0750773549079895, -0.06282937526702881, -0.050581395626068115, -0.03833341225981712, -0.02608542889356613, -0.013837449252605438, -0.0015894696116447449, 0.010658517479896545, 0.02290649712085724, 0.035154491662979126, 0.04740247130393982, 0.05965045467019081, 0.0718984380364418, 0.0841464176774025, 0.09639439731836319, 0.10864238440990448, 0.12089036405086517, 0.13313829898834229, 0.14538627862930298, 0.15763425827026367, 0.16988223791122437, 0.18213021755218506, 0.19437819719314575, 0.20662619173526764, 0.21887417137622833, 0.23112213611602783, 0.24337011575698853, 0.2556180953979492, 0.2678660750389099, 0.2801140546798706, 0.2923620343208313, 0.304610013961792, 0.3168579936027527, 0.32910600304603577, 0.34135398268699646, 0.35360196232795715, 0.36584994196891785, 0.37809792160987854, 0.39034590125083923, 0.4025939106941223, 0.414841890335083, 0.4270898699760437, 0.4393378496170044, 0.4515858292579651, 0.4638338088989258, 0.4760817885398865, 0.48832976818084717, 0.5005777478218079, 0.5128257274627686, 0.5250737071037292]}, "parameters/conv2.weight": {"_type": "histogram", "values": [2.0, 1.0, 1.0, 3.0, 2.0, 3.0, 5.0, 7.0, 5.0, 9.0, 19.0, 25.0, 38.0, 56.0, 94.0, 133.0, 171.0, 255.0, 264.0, 305.0, 244.0, 302.0, 318.0, 312.0, 303.0, 287.0, 268.0, 315.0, 315.0, 278.0, 284.0, 293.0, 302.0, 301.0, 279.0, 309.0, 335.0, 301.0, 269.0, 297.0, 275.0, 257.0, 247.0, 248.0, 198.0, 173.0, 116.0, 82.0, 93.0, 58.0, 40.0, 36.0, 17.0, 13.0, 9.0, 15.0, 9.0, 3.0, 6.0, 0.0, 6.0, 1.0, 2.0, 2.0], "bins": [-0.18377812206745148, -0.17820602655410767, -0.17263393104076385, -0.16706183552742004, -0.16148972511291504, -0.15591762959957123, -0.15034553408622742, -0.1447734385728836, -0.1392013430595398, -0.13362924754619598, -0.12805715203285217, -0.12248504906892776, -0.11691295355558395, -0.11134085804224014, -0.10576875507831573, -0.10019665956497192, -0.09462456405162811, -0.0890524685382843, -0.08348037302494049, -0.07790827006101608, -0.07233617454767227, -0.06676407903432846, -0.06119197979569435, -0.05561988055706024, -0.05004778504371643, -0.04447568953037262, -0.03890359029173851, -0.0333314910531044, -0.02775939553976059, -0.02218729816377163, -0.01661520078778267, -0.01104310154914856, -0.0054710060358047485, 0.00010109134018421173, 0.005673188716173172, 0.011245286092162132, 0.016817383468151093, 0.022389480844140053, 0.027961578220129013, 0.03353367745876312, 0.039105772972106934, 0.044677868485450745, 0.050249967724084854, 0.055822066962718964, 0.061394162476062775, 0.06696625798940659, 0.072538360953331, 0.0781104564666748, 0.08368255198001862, 0.08925464749336243, 0.09482674300670624, 0.10039884597063065, 0.10597094148397446, 0.11154303699731827, 0.11711513996124268, 0.12268723547458649, 0.1282593309879303, 0.1338314265012741, 0.13940352201461792, 0.14497561752796173, 0.15054771304130554, 0.15611982345581055, 0.16169191896915436, 0.16726401448249817, 0.17283610999584198]}, "parameters/conv2.bias": {"_type": "histogram", "values": [4.0, 3.0, 2.0, 3.0, 2.0, 3.0, 4.0, 2.0, 5.0, 6.0, 5.0, 3.0, 4.0, 4.0, 6.0, 2.0, 0.0, 1.0, 0.0, 0.0, 1.0, 0.0, 0.0, 0.0, 1.0, 1.0, 0.0, 0.0, 0.0, 0.0, 0.0, 0.0, 0.0, 0.0, 0.0, 0.0, 0.0, 0.0, 0.0, 0.0, 0.0, 0.0, 0.0, 0.0, 0.0, 0.0, 0.0, 0.0, 0.0, 0.0, 0.0, 0.0, 0.0, 1.0, 0.0, 0.0, 0.0, 0.0, 0.0, 0.0, 0.0, 0.0, 0.0, 1.0], "bins": [-0.08393465727567673, -0.07297015190124512, -0.06200563907623291, -0.0510411337018013, -0.04007662460207939, -0.029112115502357483, -0.018147610127925873, -0.007183097302913666, 0.0037814080715179443, 0.014745916239917278, 0.025710424408316612, 0.03667493164539337, 0.04763944074511528, 0.05860394984483719, 0.0695684552192688, 0.080532968044281, 0.09149747341871262, 0.10246197879314423, 0.11342649161815643, 0.12439099699258804, 0.13535550236701965, 0.14632001519203186, 0.15728452801704407, 0.16824904084205627, 0.1792135238647461, 0.1901780366897583, 0.20114253461360931, 0.21210704743862152, 0.22307156026363373, 0.23403605818748474, 0.24500057101249695, 0.25596508383750916, 0.26692959666252136, 0.27789410948753357, 0.2888586223125458, 0.2998231053352356, 0.3107876181602478, 0.32175213098526, 0.3327166438102722, 0.3436811566352844, 0.35464566946029663, 0.36561018228530884, 0.37657469511032104, 0.38753920793533325, 0.39850369095802307, 0.4094682037830353, 0.4204327166080475, 0.4313972294330597, 0.4423617124557495, 0.4533262252807617, 0.4642907381057739, 0.47525525093078613, 0.48621973395347595, 0.49718424677848816, 0.5081487894058228, 0.519113302230835, 0.5300778150558472, 0.5410423278808594, 0.5520068407058716, 0.5629713535308838, 0.573935866355896, 0.5849003791809082, 0.5958648920059204, 0.6068294048309326, 0.6177938580513]}, "parameters/fc1.weight": {"_type": "histogram", "values": [1.0, 0.0, 0.0, 0.0, 2.0, 2.0, 4.0, 6.0, 3.0, 5.0, 9.0, 11.0, 17.0, 26.0, 40.0, 43.0, 63.0, 118.0, 142.0, 207.0, 333.0, 458.0, 772.0, 1195.0, 1912.0, 3056.0, 5112.0, 8628.0, 15334.0, 30235.0, 90023.0, 113820.0, 118307.0, 118879.0, 118476.0, 114838.0, 107235.0, 88460.0, 26000.0, 11033.0, 5989.0, 3767.0, 2324.0, 1456.0, 981.0, 659.0, 420.0, 236.0, 158.0, 128.0, 92.0, 61.0, 39.0, 27.0, 23.0, 17.0, 18.0, 9.0, 9.0, 4.0, 5.0, 3.0, 1.0, 1.0], "bins": [-0.09959208220243454, -0.09667731076478958, -0.09376253187656403, -0.09084776043891907, -0.08793298155069351, -0.08501821011304855, -0.082103431224823, -0.07918865978717804, -0.07627388089895248, -0.07335910946130753, -0.07044433057308197, -0.06752955913543701, -0.06461478024721146, -0.0617000050842762, -0.05878522992134094, -0.055870458483695984, -0.05295568332076073, -0.05004090815782547, -0.04712613299489021, -0.044211357831954956, -0.0412965826690197, -0.03838180750608444, -0.035467036068439484, -0.03255225718021393, -0.02963748574256897, -0.026722710579633713, -0.023807935416698456, -0.0208931602537632, -0.017978385090827942, -0.01506361085921526, -0.012148836627602577, -0.00923406146466732, -0.006319284439086914, -0.0034045095089823008, -0.0004897345788776875, 0.002425040118396282, 0.005339815281331539, 0.008254590444266796, 0.011169364675879478, 0.014084139838814735, 0.01699891686439514, 0.0199136920273304, 0.022828467190265656, 0.025743242353200912, 0.02865801751613617, 0.031572792679071426, 0.03448756784200668, 0.03740233927965164, 0.0403171144425869, 0.043231889605522156, 0.04614666476845741, 0.04906143993139267, 0.05197621509432793, 0.054890990257263184, 0.05780576169490814, 0.0607205405831337, 0.06363531202077866, 0.06655008345842361, 0.06946486234664917, 0.07237963378429413, 0.07529441267251968, 0.07820918411016464, 0.0811239629983902, 0.08403873443603516, 0.08695351332426071]}, "parameters/fc1.bias": {"_type": "histogram", "values": [1.0, 1.0, 1.0, 3.0, 3.0, 1.0, 3.0, 2.0, 2.0, 3.0, 8.0, 4.0, 9.0, 10.0, 9.0, 9.0, 10.0, 3.0, 5.0, 8.0, 5.0, 11.0, 3.0, 3.0, 3.0, 2.0, 2.0, 0.0, 0.0, 0.0, 0.0, 0.0, 0.0, 0.0, 0.0, 0.0, 0.0, 0.0, 1.0, 0.0, 0.0, 0.0, 0.0, 0.0, 0.0, 0.0, 0.0, 0.0, 0.0, 0.0, 0.0, 0.0, 0.0, 2.0, 0.0, 0.0, 0.0, 0.0, 0.0, 0.0, 0.0, 0.0, 0.0, 1.0], "bins": [-0.03670675680041313, -0.034959010779857635, -0.03321126475930214, -0.03146351873874664, -0.029715772718191147, -0.02796802669763565, -0.026220280677080154, -0.024472534656524658, -0.022724788635969162, -0.020977042615413666, -0.01922929659485817, -0.017481550574302673, -0.015733804553747177, -0.013986058533191681, -0.012238312512636185, -0.010490566492080688, -0.008742820471525192, -0.006995074450969696, -0.0052473284304142, -0.0034995824098587036, -0.0017518363893032074, -4.090368747711182e-06, 0.001743655651807785, 0.0034914016723632812, 0.0052391476929187775, 0.006986893713474274, 0.00873463973402977, 0.010482385754585266, 0.012230131775140762, 0.013977877795696259, 0.015725623816251755, 0.01747336983680725, 0.01922111213207245, 0.020968858152627945, 0.02271660417318344, 0.024464350193738937, 0.026212096214294434, 0.02795984223484993, 0.029707588255405426, 0.03145533427596092, 0.03320308029651642, 0.034950826317071915, 0.03669857233762741, 0.03844631835818291, 0.0401940643787384, 0.0419418103992939, 0.043689556419849396, 0.04543730244040489, 0.04718504846096039, 0.048932794481515884, 0.05068054050207138, 0.05242828652262688, 0.05417603254318237, 0.05592377856373787, 0.057671524584293365, 0.05941927060484886, 0.06116701662540436, 0.06291475892066956, 0.06466250866651535, 0.06641025841236115, 0.06815800070762634, 0.06990574300289154, 0.07165349274873734, 0.07340124249458313, 0.07514898478984833]}, "parameters/fc2.weight": {"_type": "histogram", "values": [1.0, 0.0, 0.0, 0.0, 0.0, 0.0, 0.0, 1.0, 0.0, 0.0, 0.0, 0.0, 0.0, 0.0, 2.0, 0.0, 0.0, 1.0, 1.0, 0.0, 2.0, 3.0, 4.0, 6.0, 19.0, 13.0, 20.0, 20.0, 19.0, 7.0, 7.0, 3.0, 4.0, 3.0, 10.0, 17.0, 16.0, 15.0, 21.0, 17.0, 8.0, 4.0, 2.0, 2.0, 0.0, 1.0, 2.0, 1.0, 1.0, 0.0, 1.0, 0.0, 0.0, 0.0, 0.0, 0.0, 0.0, 1.0, 0.0, 0.0, 0.0, 0.0, 0.0, 1.0], "bins": [-0.7578619122505188, -0.7341493964195251, -0.7104368805885315, -0.6867243647575378, -0.6630118489265442, -0.6392993330955505, -0.6155868768692017, -0.591874361038208, -0.5681618452072144, -0.5444493293762207, -0.520736813545227, -0.4970242977142334, -0.47331178188323975, -0.4495992660522461, -0.42588678002357483, -0.4021742641925812, -0.37846171855926514, -0.3547492027282715, -0.33103668689727783, -0.3073241710662842, -0.2836116552352905, -0.2598991394042969, -0.2361866533756256, -0.21247413754463196, -0.1887616515159607, -0.16504913568496704, -0.1413366198539734, -0.11762411892414093, -0.09391160309314728, -0.07019908726215363, -0.04648658633232117, -0.022774070501327515, 0.0009385347366333008, 0.024651046842336655, 0.04836355894804001, 0.07207606732845306, 0.09578858315944672, 0.11950109899044037, 0.14321359992027283, 0.16692611575126648, 0.19063866138458252, 0.21435117721557617, 0.23806369304656982, 0.2617762088775635, 0.28548872470855713, 0.3092012405395508, 0.33291372656822205, 0.3566262423992157, 0.38033872842788696, 0.4040512442588806, 0.42776376008987427, 0.4514762759208679, 0.4751887917518616, 0.4989013075828552, 0.5226137638092041, 0.5463262796401978, 0.5700387954711914, 0.5937513113021851, 0.6174638271331787, 0.6411763429641724, 0.664888858795166, 0.6886013746261597, 0.7123138904571533, 0.736026406288147, 0.7597389221191406]}, "parameters/fc2.bias": {"_type": "histogram", "values": [1.0, 0.0, 0.0, 0.0, 0.0, 0.0, 0.0, 0.0, 0.0, 0.0, 0.0, 0.0, 0.0, 0.0, 0.0, 0.0, 0.0, 0.0, 0.0, 0.0, 0.0, 0.0, 0.0, 0.0, 0.0, 0.0, 0.0, 0.0, 0.0, 0.0, 0.0, 0.0, 0.0, 0.0, 0.0, 0.0, 0.0, 0.0, 0.0, 0.0, 0.0, 0.0, 0.0, 0.0, 0.0, 0.0, 0.0, 0.0, 0.0, 0.0, 0.0, 0.0, 0.0, 0.0, 0.0, 0.0, 0.0, 0.0, 0.0, 0.0, 0.0, 0.0, 0.0, 1.0], "bins": [-1.0987335443496704, -1.0648573637008667, -1.030981183052063, -0.997105062007904, -0.9632288813591003, -0.9293527603149414, -0.8954765796661377, -0.861600399017334, -0.8277242183685303, -0.7938480377197266, -0.7599719166755676, -0.7260957360267639, -0.6922195553779602, -0.6583434343338013, -0.6244672536849976, -0.5905910730361938, -0.5567149519920349, -0.5228387713432312, -0.4889626204967499, -0.45508646965026855, -0.42121028900146484, -0.3873341381549835, -0.3534579873085022, -0.3195818066596985, -0.28570568561553955, -0.2518295347690582, -0.21795335412025452, -0.1840772032737732, -0.15020103752613068, -0.11632487177848816, -0.08244872093200684, -0.04857255518436432, -0.014696359634399414, 0.019179802387952805, 0.05305596441030502, 0.08693212270736694, 0.12080828845500946, 0.15468445420265198, 0.1885606050491333, 0.22243677079677582, 0.2563129663467407, 0.29018911719322205, 0.32406529784202576, 0.3579414486885071, 0.3918176293373108, 0.4256937801837921, 0.45956993103027344, 0.49344611167907715, 0.5273222327232361, 0.5611984133720398, 0.5950745344161987, 0.6289507150650024, 0.6628268957138062, 0.6967030763626099, 0.7305791974067688, 0.7644553780555725, 0.7983314990997314, 0.8322076797485352, 0.8660838007926941, 0.8999599814414978, 0.9338361620903015, 0.9677122831344604, 1.0015884637832642, 1.0354646444320679, 1.0693408250808716]}, "gradients/fc2.bias": {"_type": "histogram", "values": [1.0, 0.0, 0.0, 0.0, 0.0, 0.0, 0.0, 0.0, 0.0, 0.0, 0.0, 0.0, 0.0, 0.0, 0.0, 0.0, 0.0, 0.0, 0.0, 0.0, 0.0, 0.0, 0.0, 0.0, 0.0, 0.0, 0.0, 0.0, 0.0, 0.0, 0.0, 0.0, 0.0, 0.0, 0.0, 0.0, 0.0, 0.0, 0.0, 0.0, 0.0, 0.0, 0.0, 0.0, 0.0, 0.0, 0.0, 0.0, 0.0, 0.0, 0.0, 0.0, 0.0, 0.0, 0.0, 0.0, 0.0, 0.0, 0.0, 0.0, 0.0, 0.0, 0.0, 1.0], "bins": [-0.00012572390551213175, -0.0001217950921272859, -0.00011786627874244004, -0.00011393746535759419, -0.00011000865197274834, -0.00010607983858790249, -0.00010215102520305663, -9.822221181821078e-05, -9.429339843336493e-05, -9.036458504851907e-05, -8.643577166367322e-05, -8.250695827882737e-05, -7.857814489398152e-05, -7.464933150913566e-05, -7.072051812428981e-05, -6.679170473944396e-05, -6.28628913545981e-05, -5.893407796975225e-05, -5.50052645849064e-05, -5.1076451200060546e-05, -4.7147637815214694e-05, -4.321882443036884e-05, -3.929001104552299e-05, -3.5361197660677135e-05, -3.143238427583128e-05, -2.750357089098543e-05, -2.3574757506139576e-05, -1.9645944121293724e-05, -1.571713073644787e-05, -1.1788317351602018e-05, -7.859503966756165e-06, -3.930690581910312e-06, -1.877197064459324e-09, 3.9269361877813935e-06, 7.855749572627246e-06, 1.17845629574731e-05, 1.5713376342318952e-05, 1.9642189727164805e-05, 2.3571003112010658e-05, 2.749981649685651e-05, 3.1428629881702363e-05, 3.5357443266548216e-05, 3.928625665139407e-05, 4.321507003623992e-05, 4.7143883421085775e-05, 5.107269680593163e-05, 5.500151019077748e-05, 5.8930323575623333e-05, 6.285913696046919e-05, 6.678795034531504e-05, 7.071676373016089e-05, 7.464557711500674e-05, 7.85743904998526e-05, 8.250320388469845e-05, 8.64320172695443e-05, 9.036083065439016e-05, 9.428964403923601e-05, 9.821845742408186e-05, 0.00010214727080892771, 0.00010607608419377357, 0.00011000489757861942, 0.00011393371096346527, 0.00011786252434831113, 0.00012179133773315698, 0.00012572015111800283]}, "gradients/fc2.weight": {"_type": "histogram", "values": [1.0, 0.0, 0.0, 0.0, 0.0, 0.0, 0.0, 1.0, 0.0, 0.0, 0.0, 0.0, 1.0, 0.0, 0.0, 0.0, 0.0, 0.0, 0.0, 1.0, 0.0, 0.0, 0.0, 0.0, 0.0, 0.0, 0.0, 1.0, 1.0, 10.0, 6.0, 69.0, 143.0, 6.0, 10.0, 1.0, 1.0, 0.0, 0.0, 0.0, 0.0, 0.0, 0.0, 0.0, 1.0, 0.0, 0.0, 0.0, 0.0, 0.0, 0.0, 1.0, 0.0, 0.0, 0.0, 0.0, 1.0, 0.0, 0.0, 0.0, 0.0, 0.0, 0.0, 1.0], "bins": [-0.0030975746922194958, -0.003000776283442974, -0.0029039778746664524, -0.0028071794658899307, -0.0027103808242827654, -0.0026135824155062437, -0.002516784006729722, -0.0024199855979532003, -0.002323186956346035, -0.0022263885475695133, -0.0021295901387929916, -0.00203279173001647, -0.0019359930884093046, -0.001839194679632783, -0.0017423962708562613, -0.0016455978620797396, -0.0015487994533032179, -0.0014520010445266962, -0.0013552025193348527, -0.001258404110558331, -0.0011616055853664875, -0.0010648071765899658, -0.0009680087678134441, -0.0008712103008292615, -0.0007744119502604008, -0.0006776134832762182, -0.0005808150162920356, -0.0004840166075155139, -0.0003872181405313313, -0.0002904196735471487, -0.00019362126477062702, -9.682279778644443e-05, -2.421438694000244e-08, 9.677423804532737e-05, 0.00019357269047759473, 0.00029037112835794687, 0.00038716959534212947, 0.00048396806232631207, 0.0005807664711028337, 0.0006775649380870163, 0.0007743635214865208, 0.0008711619884707034, 0.000967960455454886, 0.0010647588642314076, 0.0011615573894232512, 0.0012583557981997728, 0.0013551542069762945, 0.0014519526157528162, 0.0015487510245293379, 0.0016455494333058596, 0.001742347958497703, 0.0018391463672742248, 0.0019359448924660683, 0.00203274330124259, 0.0021295417100191116, 0.0022263401187956333, 0.002323138527572155, 0.0024199369363486767, 0.0025167353451251984, 0.00261353375390172, 0.0027103323955088854, 0.002807130804285407, 0.0029039292130619287, 0.0030007276218384504, 0.0030975262634456158]}, "gradients/fc1.bias": {"_type": "histogram", "values": [2.0, 0.0, 0.0, 0.0, 0.0, 0.0, 1.0, 0.0, 0.0, 0.0, 0.0, 0.0, 1.0, 0.0, 0.0, 0.0, 0.0, 0.0, 0.0, 0.0, 0.0, 0.0, 0.0, 0.0, 0.0, 0.0, 0.0, 0.0, 1.0, 2.0, 0.0, 1.0, 1.0, 1.0, 2.0, 0.0, 50.0, 15.0, 10.0, 1.0, 1.0, 4.0, 1.0, 1.0, 3.0, 4.0, 5.0, 1.0, 2.0, 1.0, 1.0, 2.0, 3.0, 0.0, 1.0, 1.0, 0.0, 1.0, 3.0, 1.0, 0.0, 1.0, 0.0, 3.0], "bins": [-2.5364257453475147e-05, -2.4673216103110462e-05, -2.3982172933756374e-05, -2.329113158339169e-05, -2.2600090233027004e-05, -2.190904888266232e-05, -2.121800571330823e-05, -2.0526964362943545e-05, -1.983592301257886e-05, -1.9144881662214175e-05, -1.8453838492860086e-05, -1.77627971424954e-05, -1.7071755792130716e-05, -1.638071444176603e-05, -1.5689671272411942e-05, -1.4998629922047257e-05, -1.430758766218787e-05, -1.3616545402328484e-05, -1.2925504051963799e-05, -1.2234461792104412e-05, -1.1543420441739727e-05, -1.085237818188034e-05, -1.0161336831515655e-05, -9.470294571656268e-06, -8.779252311796881e-06, -8.088210051937494e-06, -7.397168701572809e-06, -6.7061264417134225e-06, -6.0150850913487375e-06, -5.324042831489351e-06, -4.633001026377315e-06, -3.941959221265279e-06, -3.2509178709005937e-06, -2.5598760657885578e-06, -1.868834146989684e-06, -1.1777922281908104e-06, -4.867504230787745e-07, 2.0429138203326147e-07, 8.953334145189729e-07, 1.5863752196310088e-06, 2.277416569995694e-06, 2.96845837510773e-06, 3.6595001802197658e-06, 4.350542440079153e-06, 5.041583790443838e-06, 5.7326260503032245e-06, 6.42366785541526e-06, 7.114709660527296e-06, 7.805751920386683e-06, 8.49679418024607e-06, 9.187835530610755e-06, 9.878877790470142e-06, 1.0569919140834827e-05, 1.1260961400694214e-05, 1.1952002751058899e-05, 1.2643045010918286e-05, 1.3334087270777673e-05, 1.402512953063706e-05, 1.4716170881001744e-05, 1.540721314086113e-05, 1.6098254491225816e-05, 1.67892958415905e-05, 1.748033901094459e-05, 1.8171380361309275e-05, 1.886242171167396e-05]}, "gradients/fc1.weight": {"_type": "histogram", "values": [5.0, 2.0, 2.0, 2.0, 4.0, 2.0, 5.0, 1.0, 5.0, 7.0, 17.0, 24.0, 13.0, 40.0, 43.0, 59.0, 71.0, 91.0, 117.0, 179.0, 256.0, 397.0, 741.0, 1125.0, 2386.0, 13970.0, 956781.0, 7244.0, 2627.0, 1422.0, 959.0, 585.0, 400.0, 318.0, 228.0, 180.0, 166.0, 137.0, 112.0, 93.0, 70.0, 66.0, 44.0, 48.0, 42.0, 26.0, 17.0, 13.0, 15.0, 14.0, 12.0, 11.0, 6.0, 8.0, 6.0, 2.0, 5.0, 2.0, 2.0, 2.0, 2.0, 1.0, 1.0, 1.0], "bins": [-0.0009425848838873208, -0.0009064742480404675, -0.0008703636121936142, -0.000834252976346761, -0.0007981423404999077, -0.0007620317046530545, -0.0007259210688062012, -0.000689810432959348, -0.0006536997971124947, -0.0006175891612656415, -0.0005814785254187882, -0.0005453678895719349, -0.0005092572537250817, -0.0004731466178782284, -0.00043703598203137517, -0.0004009253461845219, -0.00036481471033766866, -0.0003287040744908154, -0.00029259343864396214, -0.0002564828027971089, -0.00022037216695025563, -0.00018426153110340238, -0.00014815089525654912, -0.00011204025940969586, -7.592962356284261e-05, -3.981898771598935e-05, -3.708351869136095e-06, 3.240228397771716e-05, 6.851291982457042e-05, 0.00010462355567142367, 0.00014073419151827693, 0.00017684482736513019, 0.00021295540500432253, 0.0002490660408511758, 0.00028517667669802904, 0.0003212873125448823, 0.00035739794839173555, 0.0003935085842385888, 0.00042961922008544207, 0.0004657298559322953, 0.0005018404917791486, 0.0005379511276260018, 0.0005740617634728551, 0.0006101723993197083, 0.0006462830351665616, 0.0006823936710134149, 0.0007185043068602681, 0.0007546149427071214, 0.0007907255785539746, 0.0008268362144008279, 0.0008629468502476811, 0.0008990574860945344, 0.0009351681219413877, 0.0009712787577882409, 0.0010073893936350942, 0.0010435000294819474, 0.0010796106653288007, 0.001115721301175654, 0.0011518319370225072, 0.0011879425728693604, 0.0012240532087162137, 0.001260163844563067, 0.0012962744804099202, 0.0013323851162567735, 0.0013684957521036267]}, "gradients/conv2.weight": {"_type": "histogram", "values": [1.0, 0.0, 0.0, 0.0, 0.0, 0.0, 0.0, 2.0, 0.0, 2.0, 1.0, 1.0, 2.0, 4.0, 0.0, 2.0, 2.0, 4.0, 3.0, 5.0, 5.0, 9.0, 10.0, 15.0, 15.0, 11.0, 22.0, 31.0, 41.0, 44.0, 57.0, 69.0, 81.0, 125.0, 147.0, 267.0, 546.0, 2589.0, 3495.0, 550.0, 334.0, 196.0, 132.0, 91.0, 69.0, 50.0, 39.0, 28.0, 17.0, 18.0, 13.0, 15.0, 9.0, 11.0, 3.0, 9.0, 6.0, 4.0, 3.0, 7.0, 0.0, 0.0, 2.0, 2.0], "bins": [-0.0013102072989568114, -0.0012757452204823494, -0.0012412830255925655, -0.0012068209471181035, -0.0011723588686436415, -0.0011378967901691794, -0.0011034347116947174, -0.0010689725168049335, -0.0010345104383304715, -0.0010000483598560095, -0.0009655862231738865, -0.0009311240864917636, -0.0008966620080173016, -0.0008621999295428395, -0.0008277377928607166, -0.0007932756561785936, -0.0007588135777041316, -0.0007243514992296696, -0.0006898893625475466, -0.0006554272258654237, -0.0006209651473909616, -0.0005865030689164996, -0.0005520409322343767, -0.0005175787955522537, -0.0004831167170777917, -0.0004486546094994992, -0.0004141925019212067, -0.0003797303943429142, -0.00034526828676462173, -0.00031080617918632925, -0.00027634407160803676, -0.00024188196402974427, -0.0002074199728667736, -0.00017295786528848112, -0.00013849575771018863, -0.00010403365013189614, -6.957154255360365e-05, -3.510943497531116e-05, -6.47327397018671e-07, 3.381478018127382e-05, 6.827688775956631e-05, 0.0001027389953378588, 0.00013720110291615129, 0.00017166321049444377, 0.00020612531807273626, 0.00024058742565102875, 0.00027504953322932124, 0.00030951164080761373, 0.0003439737483859062, 0.0003784358559641987, 0.0004128979635424912, 0.0004473600711207837, 0.0004818221786990762, 0.0005162842571735382, 0.0005507463938556612, 0.0005852085305377841, 0.0006196706090122461, 0.0006541326874867082, 0.0006885948241688311, 0.0007230569608509541, 0.0007575190393254161, 0.0007919811177998781, 0.0008264432544820011, 0.000860905391164124, 0.000895367469638586]}, "gradients/conv2.bias": {"_type": "histogram", "values": [1.0, 0.0, 0.0, 0.0, 0.0, 0.0, 0.0, 0.0, 0.0, 0.0, 0.0, 0.0, 0.0, 0.0, 0.0, 0.0, 0.0, 1.0, 0.0, 0.0, 0.0, 0.0, 0.0, 0.0, 0.0, 0.0, 0.0, 0.0, 0.0, 0.0, 0.0, 1.0, 0.0, 0.0, 0.0, 0.0, 0.0, 0.0, 0.0, 0.0, 0.0, 0.0, 0.0, 0.0, 0.0, 0.0, 0.0, 0.0, 1.0, 0.0, 0.0, 1.0, 0.0, 0.0, 1.0, 1.0, 1.0, 0.0, 0.0, 1.0, 4.0, 4.0, 41.0, 6.0], "bins": [-0.0005115407984703779, -0.0005033850902691483, -0.0004952293820679188, -0.0004870736738666892, -0.00047891796566545963, -0.0004707622865680605, -0.00046260657836683095, -0.00045445087016560137, -0.0004462951619643718, -0.00043813945376314223, -0.00042998374556191266, -0.0004218280373606831, -0.00041367235826328397, -0.0004055166500620544, -0.0003973609418608248, -0.00038920523365959525, -0.0003810495254583657, -0.0003728938172571361, -0.00036473810905590653, -0.00035658240085467696, -0.0003484266926534474, -0.0003402710135560483, -0.0003321153053548187, -0.00032395959715358913, -0.00031580388895235956, -0.00030764818075113, -0.0002994924725499004, -0.00029133676434867084, -0.0002831810852512717, -0.00027502537705004215, -0.0002668696688488126, -0.000258713960647583, -0.00025055825244635344, -0.00024240254424512386, -0.0002342468360438943, -0.00022609114239457995, -0.00021793543419335037, -0.0002097797259921208, -0.00020162403234280646, -0.00019346832414157689, -0.00018531261594034731, -0.00017715690773911774, -0.00016900119953788817, -0.00016084550588857383, -0.00015268979768734425, -0.00014453408948611468, -0.00013637839583680034, -0.00012822268763557076, -0.00012006697943434119, -0.00011191127123311162, -0.00010375557030783966, -9.55998693825677e-05, -8.744416118133813e-05, -7.928845298010856e-05, -7.11327520548366e-05, -6.297705112956464e-05, -5.482134292833507e-05, -4.6665638365084305e-05, -3.850993380183354e-05, -3.0354229238582775e-05, -2.219852467533201e-05, -1.4042820112081245e-05, -5.887115548830479e-06, 2.268589014420286e-06, 1.0424291758681647e-05]}, "gradients/conv1.weight": {"_type": "histogram", "values": [1.0, 0.0, 0.0, 0.0, 0.0, 0.0, 0.0, 2.0, 0.0, 0.0, 0.0, 2.0, 1.0, 1.0, 3.0, 3.0, 1.0, 6.0, 2.0, 2.0, 3.0, 16.0, 9.0, 15.0, 21.0, 22.0, 24.0, 41.0, 96.0, 46.0, 16.0, 18.0, 12.0, 12.0, 8.0, 4.0, 7.0, 5.0, 3.0, 2.0, 4.0, 4.0, 2.0, 0.0, 1.0, 1.0, 1.0, 3.0, 0.0, 1.0, 1.0, 0.0, 1.0, 2.0, 2.0, 3.0, 0.0, 1.0, 0.0, 0.0, 0.0, 0.0, 0.0, 1.0], "bins": [-0.0016475452575832605, -0.001589508610777557, -0.0015314719639718533, -0.0014734354335814714, -0.0014153987867757678, -0.0013573621399700642, -0.0012993256095796824, -0.0012412889627739787, -0.001183252315968275, -0.0011252156691625714, -0.0010671790223568678, -0.001009142491966486, -0.0009511058451607823, -0.0008930691983550787, -0.000835032609757036, -0.0007769960211589932, -0.0007189593743532896, -0.000660922727547586, -0.0006028861389495432, -0.0005448495503515005, -0.00048681290354579687, -0.0004287762858439237, -0.0003707396681420505, -0.0003127030504401773, -0.00025466643273830414, -0.00019662981503643095, -0.00013859319733455777, -8.055657963268459e-05, -2.2519961930811405e-05, 3.551665577106178e-05, 9.355327347293496e-05, 0.00015158989117480814, 0.00020962650887668133, 0.0002676631265785545, 0.0003256997442804277, 0.0003837363619823009, 0.00044177297968417406, 0.0004998096264898777, 0.0005578462150879204, 0.0006158828036859632, 0.0006739194504916668, 0.0007319560972973704, 0.0007899926858954132, 0.0008480292744934559, 0.0009060659212991595, 0.0009641025681048632, 0.001022139098495245, 0.0010801757453009486, 0.0011382123921066523, 0.001196249038912356, 0.0012542856857180595, 0.0013123222161084414, 0.001370358862914145, 0.0014283955097198486, 0.0014864320401102304, 0.001544468686915934, 0.0016025053337216377, 0.0016605419805273414, 0.001718578627333045, 0.0017766151577234268, 0.0018346518045291305, 0.001892688451334834, 0.001950724981725216, 0.0020087617449462414, 0.002066798275336623]}, "gradients/conv1.bias": {"_type": "histogram", "values": [1.0, 0.0, 0.0, 0.0, 0.0, 0.0, 0.0, 0.0, 0.0, 0.0, 0.0, 1.0, 0.0, 0.0, 0.0, 0.0, 0.0, 0.0, 1.0, 0.0, 0.0, 0.0, 0.0, 1.0, 0.0, 0.0, 0.0, 0.0, 0.0, 0.0, 0.0, 0.0, 0.0, 0.0, 0.0, 0.0, 0.0, 0.0, 0.0, 0.0, 0.0, 0.0, 1.0, 0.0, 1.0, 0.0, 0.0, 0.0, 0.0, 0.0, 0.0, 0.0, 0.0, 1.0, 0.0, 0.0, 3.0, 1.0, 0.0, 1.0, 0.0, 1.0, 1.0, 2.0], "bins": [-0.0007694240193814039, -0.0007546592387370765, -0.0007398943998850882, -0.0007251296192407608, -0.0007103647803887725, -0.0006955999997444451, -0.0006808351608924568, -0.0006660703802481294, -0.000651305541396141, -0.0006365407607518137, -0.0006217759218998253, -0.0006070111412554979, -0.0005922463024035096, -0.0005774815217591822, -0.0005627166829071939, -0.0005479519022628665, -0.0005331870634108782, -0.0005184222827665508, -0.0005036574439145625, -0.0004888926632702351, -0.00047412782441824675, -0.0004593630146700889, -0.00044459820492193103, -0.0004298334242776036, -0.0004150686436332762, -0.00040030383388511837, -0.0003855390241369605, -0.00037077421438880265, -0.0003560094046406448, -0.00034124459489248693, -0.00032647978514432907, -0.00031171500450000167, -0.0002969501365441829, -0.00028218532679602504, -0.0002674205170478672, -0.0002526557072997093, -0.00023789089755155146, -0.0002231260878033936, -0.00020836129260715097, -0.0001935964828589931, -0.00017883165855892003, -0.00016406684881076217, -0.0001493020390626043, -0.00013453722931444645, -0.0001197724268422462, -0.00010500761709408835, -9.02428146218881e-05, -7.547800487373024e-05, -6.071320967748761e-05, -4.594839992932975e-05, -3.11835938191507e-05, -1.641878770897165e-05, -1.6539779608137906e-06, 1.3110831787344068e-05, 2.7875634259544313e-05, 4.264044400770217e-05, 5.740525375586003e-05, 7.217006350401789e-05, 8.693487325217575e-05, 0.00010169967572437599, 0.00011646448547253385, 0.0001312292879447341, 0.00014599409769289196, 0.00016075890744104981, 0.00017552371718920767]}}